{"in": [[["738", "660", "929"], ["435", "54", "46"], ["686", "577", "1"], ["843", "551", "489"], ["393", "497", "40"]], [["888", "788", "380"], ["451", "246", "662"], ["426", "334", "542"], ["699", "976", "224"], ["822", "119", "985"]], [["548", "58", "711"], ["100", "612", "208"], ["472", "62", "1001"], ["613", "704", "533"], ["82", "765", "324"]], [["859", "840", "359"], ["700", "313", "637"], ["647", "602", "927"], ["873", "715", "24"], ["184", "104", "105"]], [["59", "947", "640"], ["185", "317", "711"], ["90", "279", "998"], ["93", "359", "729"], ["186", "561", "391"]]], "weights": [[[["67", "157"], ["228", "-373"], ["-303", "-41"]], [["337", "125"], ["-262", "-83"], ["367", "156"]], [["172", "37"], ["-305", "-122"], ["276", "96"]]], [[["-18", "256"], ["334", "-340"], ["-118", "330"]], [["-26", "-127"], ["77", "17"], ["-116", "2"]], [["291", "-334"], ["-39", "-263"], ["356", "265"]]], [[["-340", "-294"], ["18", "-361"], ["28", "278"]], [["163", "-109"], ["24", "-176"], ["193", "-168"]], [["-272", "-85"], ["-181", "-308"], ["-340", "-369"]]]], "bias": ["0", "0"], "out": [[["-125", "-759"], ["187", "-998"], ["876", "-471"]], [["381", "-817"], ["126", "-1179"], ["230", "-163"]], [["535", "-842"], ["628", "-849"], ["-90", "-214"]]], "in_unchanged": [[["0.7208954984116559", "0.6453166099281288", "0.9075128343809579"], ["0.4256610582133554", "0.053320636810911815", "0.045239284633868615"], ["0.6706090309469837", "0.5638944057845632", "0.0012181798602449723"], ["0.8237316755164511", "0.5389838384777456", "0.47770669109730557"], ["0.3838992600975043", "0.4862804524141974", "0.03947125175619892"]], [["0.8679743261567054", "0.770478059658673", "0.37122784611782655"], ["0.4407833145001798", "0.2403217963656492", "0.6470689531281245"], ["0.4165846957685345", "0.3268819861303961", "0.5302101695402015"], ["0.6826525630913515", "0.9532090917398512", "0.21957464739158217"], ["0.803270954897303", "0.11622152004088482", "0.9621329090507063"]], [["0.5359203463944564", "0.05747584041547493", "0.6951126760962406"], ["0.0982112826681023", "0.598348173327169", "0.2036346996974122"], ["0.4613561317305589", "0.06088502009408847", "0.9783659884078322"], ["0.5989139272846778", "0.6882538806871644", "0.5212324532525172"], ["0.08042597725462763", "0.7476560692820259", "0.31701708543443563"]], [["0.8396582358494514", "0.8203687584980248", "0.3506546724270847"], ["0.6843708000050567", "0.30596595501866397", "0.6227857574351376"], ["0.6325422961253089", "0.5878965300010645", "0.9061228830601907"], ["0.8528207606595842", "0.6989366539365014", "0.02364422809483513"], ["0.1799057827916476", "0.10198754608594685", "0.1029059296003596"]], [["0.058376748442132476", "0.9252317442759017", "0.6250643344157062"], ["0.18154167360751983", "0.3097068382810362", "0.6950788788953534"], ["0.08834352407161206", "0.27331192926837233", "0.9749051905490098"], ["0.09138705474471909", "0.3512954203524735", "0.712787978730028"], ["0.18171235564731536", "0.5484341822360408", "0.38205774000344084"]]], "weights_unchanged": [[[["0.06589422", "0.15386885"], ["0.22267145", "-0.36440566"], ["-0.29610646", "-0.04081148"]], [["0.3292575", "0.122724414"], ["-0.25673842", "-0.08194646"], ["0.35903567", "0.15314251"]], [["0.16893297", "0.036310464"], ["-0.2978916", "-0.11929214"], ["0.27019453", "0.09377122"]]], [[["-0.018076748", "0.25049007"], ["0.32713258", "-0.33286095"], ["-0.11572884", "0.32308108"]], [["-0.025933146", "-0.12454635"], ["0.07588145", "0.016930819"], ["-0.11419967", "0.0021026433"]], [["0.28443098", "-0.3269171"], ["-0.038086712", "-0.2577166"], ["0.348368", "0.25912756"]]], [[["-0.33253673", "-0.2880581"], ["0.017598271", "-0.35288867"], ["0.028015763", "0.27217495"]], [["0.15930521", "-0.1067197"], ["0.023897558", "-0.17259818"], ["0.18851453", "-0.16481589"]], [["-0.2663884", "-0.083431125"], ["-0.17713974", "-0.30083954"], ["-0.33255816", "-0.36066514"]]]], "bias_unchanged": ["0.0", "0.0"]}