{"in": ["619", "728", "688", "800", "424", "997", "322", "556", "778", "981", "724", "854", "599", "852", "487", "393", "437", "340", "352", "947"], "weights": [["-317", "322", "252", "50", "-227", "390", "-233", "399", "-28", "73"], ["79", "197", "430", "-422", "188", "-373", "240", "-71", "173", "1"], ["-33", "-43", "-157", "271", "3", "431", "-322", "115", "-310", "-382"], ["-242", "-371", "404", "380", "-155", "-153", "-366", "-79", "138", "178"], ["53", "-420", "-261", "-320", "372", "-407", "426", "-263", "-218", "-87"], ["-199", "362", "157", "62", "353", "381", "-310", "42", "-90", "-380"], ["-211", "-12", "-91", "123", "-175", "278", "-363", "278", "-306", "251"], ["320", "174", "305", "220", "109", "-116", "259", "116", "56", "-42"], ["-360", "-238", "-414", "-412", "-107", "-174", "-412", "-135", "230", "0"], ["-205", "-123", "-420", "-457", "132", "-206", "-407", "-166", "309", "227"], ["-371", "-82", "-116", "450", "442", "197", "-439", "5", "197", "-439"], ["-412", "-279", "-349", "319", "71", "-12", "28", "202", "-101", "-262"], ["-113", "249", "-144", "-424", "84", "-109", "-388", "-444", "369", "-131"], ["-339", "-212", "115", "96", "-368", "200", "-217", "-64", "-218", "-3"], ["98", "339", "-290", "-357", "-368", "414", "291", "-18", "326", "-309"], ["375", "-29", "208", "-67", "203", "252", "-111", "166", "-119", "351"], ["-311", "-380", "24", "-94", "-133", "361", "27", "330", "-40", "193"], ["-66", "-263", "147", "-124", "128", "370", "-297", "125", "-104", "433"], ["224", "-340", "236", "31", "-247", "-97", "-414", "-321", "-51", "457"], ["420", "448", "-294", "-384", "260", "-239", "-190", "-58", "339", "345"]], "bias": ["0", "0", "0", "0", "0", "0", "0", "0", "0", "0"], "out": ["-1334", "-137", "-419", "-661", "583", "586", "-2279", "-41", "675", "-124"], "in_unchanged": ["0.6051547391692882", "0.7111736853672821", "0.6719476544375308", "0.781509286672834", "0.4143401681155534", "0.9739422866936872", "0.3148726553323621", "0.5434832827406487", "0.7601922150760032", "0.9589620487224905", "0.707271946267691", "0.8343011209433537", "0.5854317177324299", "0.8321216987922575", "0.4757099570457697", "0.3843787867366497", "0.4269303843546717", "0.3330058741872739", "0.3445343922057369", "0.92558826138179"], "weights_unchanged": [["-0.3100097", "0.31533927", "0.24686503", "0.04919547", "-0.22169876", "0.38167316", "-0.22832842", "0.38987768", "-0.027962148", "0.07186353"], ["0.07811576", "0.19261855", "0.4208687", "-0.41263807", "0.18379027", "-0.3645985", "0.23442751", "-0.06968817", "0.16899538", "0.001788497"], ["-0.032602847", "-0.042517394", "-0.15383843", "0.26511073", "0.003568381", "0.42091", "-0.31465337", "0.11231232", "-0.30305684", "-0.3732738"], ["-0.23700987", "-0.36235887", "0.3951931", "0.37113756", "-0.15150794", "-0.14952058", "-0.35786435", "-0.07766536", "0.1355874", "0.17431283"], ["0.05210182", "-0.41072515", "-0.2553897", "-0.3130446", "0.36358535", "-0.39842594", "0.416413", "-0.25759393", "-0.2136156", "-0.08535519"], ["-0.19447476", "0.35413754", "0.15354449", "0.06088531", "0.34552634", "0.37224156", "-0.30296195", "0.0418801", "-0.087996185", "-0.3714844"], ["-0.2066798", "-0.0119763315", "-0.08915475", "0.120393574", "-0.17117167", "0.27150047", "-0.35515228", "0.27193445", "-0.2995261", "0.24521887"], ["0.31256706", "0.17011863", "0.29821163", "0.21510482", "0.10658103", "-0.1137867", "0.2537734", "0.11396307", "0.055377245", "-0.04184279"], ["-0.35247728", "-0.23327312", "-0.40454063", "-0.4026954", "-0.10525423", "-0.17058", "-0.40309992", "-0.13238257", "0.22519541", "-0.0003029108"], ["-0.20035295", "-0.12065819", "-0.41058877", "-0.44716242", "0.12982571", "-0.20214242", "-0.39780614", "-0.16220704", "0.3025217", "0.2218939"], ["-0.36235034", "-0.08035132", "-0.11389354", "0.4403615", "0.4317978", "0.19312626", "-0.42932612", "0.005270332", "0.1928094", "-0.42932528"], ["-0.4023896", "-0.2727609", "-0.34149194", "0.3122509", "0.070070565", "-0.0117275715", "0.027691752", "0.1977008", "-0.09890124", "-0.25595567"], ["-0.111121744", "0.24410462", "-0.14122534", "-0.41443726", "0.08219242", "-0.10694072", "-0.3789979", "-0.4344315", "0.36073714", "-0.12887529"], ["-0.33135965", "-0.20712145", "0.11258793", "0.09389132", "-0.3595069", "0.19596678", "-0.21204299", "-0.06337392", "-0.21308993", "-0.0032294393"], ["0.09648293", "0.33138704", "-0.28378454", "-0.34867954", "-0.3599332", "0.404392", "0.28449255", "-0.018500328", "0.31913477", "-0.30247563"], ["0.36651975", "-0.02903235", "0.20324087", "-0.066253185", "0.198757", "0.24659932", "-0.10919538", "0.16261697", "-0.116741806", "0.34341574"], ["-0.30417937", "-0.37178713", "0.023453772", "-0.09218457", "-0.1300345", "0.3527692", "0.026435286", "0.32289678", "-0.03992185", "0.1886096"], ["-0.064783275", "-0.25737816", "0.14435399", "-0.12173191", "0.12536812", "0.36173224", "-0.29051477", "0.122406304", "-0.101778924", "0.42363894"], ["0.21888858", "-0.33264512", "0.2306394", "0.03051421", "-0.24192075", "-0.09566799", "-0.4049007", "-0.31356463", "-0.05025232", "0.4470783"], ["0.41104138", "0.4381389", "-0.28778368", "-0.37594917", "0.2547887", "-0.23357198", "-0.18635994", "-0.05722502", "0.3315776", "0.33755612"]], "bias_unchanged": ["0.0", "0.0", "0.0", "0.0", "0.0", "0.0", "0.0", "0.0", "0.0", "0.0"]}